digraph Tree {
node [shape=box] ;
0 [label="Attrition <= 0.5\ngini = 0.27\nsamples = 1470\nvalue = [1233, 237]"] ;
1 [label="gini = 0.0\nsamples = 1233\nvalue = [1233, 0]"] ;
0 -> 1 [labeldistance=2.5, labelangle=45, headlabel="True"] ;
2 [label="gini = 0.0\nsamples = 237\nvalue = [0, 237]"] ;
0 -> 2 [labeldistance=2.5, labelangle=-45, headlabel="False"] ;
}